<?xml version="1.0" encoding="UTF-8"?>
<!-- This network was created in GeNIe Academic, which can be used for academic teaching and research purposes only -->
<smile version="1.0" id="Diabietes_dens" numsamples="10000" discsamples="10000">
	<nodes>
		<cpt id="﻿Diabetes_012" diagtype="target">
			<state id="Not_Diabetes" fault="true" />
			<state id="Prediabetes" fault="true" />
			<state id="Diabetes" fault="true" />
			<probabilities>0.8220179859669928 0.01759067101492242 0.1603913430180848</probabilities>
		</cpt>
		<cpt id="HvyAlcoholConsump" diagtype="observation" ranked="true">
			<state id="Not_heavy_drinker" />
			<state id="Heavy_drinket" />
			<parents>﻿Diabetes_012</parents>
			<probabilities>0.936523202692955 0.06347679730704496 0.9662921348314606 0.03370786516853932 0.9833641404805915 0.01663585951940851</probabilities>
		</cpt>
		<cpt id="CholCheck" diagtype="observation" ranked="true">
			<state id="Not_tested_in_last_5yrs" />
			<state id="Tested_in_last_5yrs" />
			<parents>﻿Diabetes_012 HvyAlcoholConsump</parents>
			<probabilities>0.04454428754813864 0.9554557124518614 0.05492424242424242 0.9450757575757576 0.01162790697674419 0.9883720930232558 0.07142857142857142 0.9285714285714285 0.008771929824561403 0.9912280701754386 0.01785714285714286 0.9821428571428571</probabilities>
		</cpt>
		<cpt id="AnyHealthcare" diagtype="observation" ranked="true">
			<state id="None" />
			<state id="Has_health_care" />
			<parents>﻿Diabetes_012 CholCheck HvyAlcoholConsump</parents>
			<probabilities>0.2680115273775216 0.7319884726224783 0.2758620689655172 0.7241379310344828 0.05427918849926106 0.9457208115007389 0.05611222444889779 0.9438877755511021 0.8333333333333333 0.1666666666666667 0.5 0.5 0.02941176470588235 0.9705882352941176 0.07142857142857142 0.9285714285714285 0.3571428571428571 0.6428571428571428 0.5 0.5 0.04614412136536031 0.9538558786346398 0.03703703703703703 0.9629629629629629</probabilities>
		</cpt>
		<cpt id="Age" diagtype="observation" ranked="true">
			<state id="a18_24" />
			<state id="a25_29" />
			<state id="a30_34" />
			<state id="a35_39" />
			<state id="a40_44" />
			<state id="a45_49" />
			<state id="a50_54" />
			<state id="a55_59" />
			<state id="a60_64" />
			<state id="a65_69" />
			<state id="a70_74" />
			<state id="a75_79" />
			<state id="a80_plus" />
			<parents>﻿Diabetes_012 AnyHealthcare</parents>
			<probabilities>0.0525328330206379 0.05628517823639775 0.08255159474671669 0.0975609756097561 0.1106941838649156 0.1031894934333959 0.1707317073170732 0.1482176360225141 0.1181988742964353 0.0150093808630394 0.0150093808630394 0.005628517823639775 0.02439024390243903 0.0218368657675016 0.03018625561978163 0.04213230571612075 0.06011560693641618 0.06795118818240206 0.0819524727039178 0.1084136159280668 0.1162491971740527 0.1263969171483622 0.1260115606936416 0.09248554913294797 0.0651252408477842 0.0611432241490045 0.009615384615384616 0.009615384615384616 0.009615384615384616 0.1346153846153846 0.1346153846153846 0.1346153846153846 0.009615384615384616 0.1346153846153846 0.2596153846153846 0.009615384615384616 0.009615384615384616 0.009615384615384616 0.1346153846153846 0.000447227191413238 0.01788908765652952 0.01788908765652952 0.02951699463327371 0.02951699463327371 0.07021466905187836 0.09347048300536674 0.1283542039355993 0.1574239713774598 0.2039355992844366 0.06440071556350627 0.09347048300536674 0.09347048300536674 0.0009615384615384614 0.02596153846153846 0.03846153846153846 0.02596153846153846 0.07596153846153844 0.08846153846153844 0.1884615384615384 0.2009615384615384 0.2759615384615384 0.03846153846153846 0.02596153846153846 0.01346153846153846 0.0009615384615384614 0.00194300518134715 0.002590673575129534 0.006476683937823835 0.01813471502590674 0.02784974093264249 0.05051813471502591 0.08160621761658031 0.1288860103626943 0.1476683937823834 0.1904145077720207 0.1509067357512953 0.09715025906735751 0.09585492227979275</probabilities>
		</cpt>
		<cpt id="HighBP" diagtype="observation" ranked="true">
			<state id="No" />
			<state id="Yes" />
			<parents>﻿Diabetes_012 Age</parents>
			<probabilities>0.8989898989898991 0.101010101010101 0.8943396226415095 0.1056603773584906 0.8037634408602151 0.196236559139785 0.7942307692307693 0.2057692307692308 0.738095238095238 0.2619047619047619 0.7128427128427128 0.2871572871572872 0.6288770053475936 0.3711229946524064 0.6138211382113822 0.3861788617886179 0.5329512893982807 0.4670487106017192 0.4721941354903944 0.5278058645096056 0.4271978021978022 0.5728021978021979 0.3941176470588235 0.6058823529411764 0.4171779141104295 0.5828220858895706 0.5 0.5 0.875 0.125 0.6666666666666666 0.3333333333333333 0.8333333333333333 0.1666666666666667 0.5 0.5 0.2307692307692308 0.7692307692307693 0.5 0.5 0.3913043478260869 0.6086956521739131 0.3448275862068966 0.6551724137931034 0.3142857142857143 0.6857142857142857 0.4545454545454546 0.5454545454545454 0.3125 0.6875 0.3529411764705882 0.6470588235294118 0.6666666666666666 0.3333333333333333 0.8333333333333333 0.1666666666666667 0.4615384615384616 0.5384615384615385 0.3666666666666666 0.6333333333333333 0.4693877551020408 0.5306122448979591 0.3411764705882353 0.6588235294117647 0.2907801418439716 0.7092198581560284 0.2418604651162791 0.7581395348837209 0.208 0.792 0.1818181818181818 0.8181818181818181 0.2340425531914894 0.7659574468085106 0.1788079470198675 0.8211920529801324 0.2364864864864865 0.7635135135135136</probabilities>
		</cpt>
		<cpt id="HighChol" diagtype="observation" ranked="true">
			<state id="No" />
			<state id="Yes" />
			<parents>﻿Diabetes_012 HighBP CholCheck AnyHealthcare</parents>
			<probabilities>0.8289473684210525 0.1710526315789473 0.8185840707964601 0.1814159292035398 0.7794117647058824 0.2205882352941176 0.6948346171273222 0.3051653828726779 0.48 0.52 0.6326530612244897 0.3673469387755102 0.525 0.475 0.4363695090439277 0.5636304909560724 0.1666666666666667 0.8333333333333333 0.5 0.5 0.25 0.75 0.4328358208955224 0.5671641791044776 0.5 0.5 0.5 0.5 0.25 0.75 0.2884615384615385 0.7115384615384616 0.125 0.875 0.4 0.6000000000000001 0.5 0.5 0.4320652173913043 0.5679347826086957 0.5 0.5 0.5 0.5 0.3620689655172414 0.6379310344827586 0.2742073693230506 0.7257926306769494</probabilities>
		</cpt>
		<cpt id="BMI" diagtype="observation" ranked="true">
			<state id="Severe_thinness" />
			<state id="Moderate_thinness" />
			<state id="Mild_thinness" />
			<state id="Normal_range" />
			<state id="Overweight" />
			<state id="Obese_Class_I" />
			<state id="Obese_Class_II" />
			<state id="Obese_Class_III" />
			<parents>﻿Diabetes_012 HighBP CholCheck</parents>
			<probabilities>0.0004125412541254125 0.0004125412541254125 0.02681518151815182 0.4063531353135313 0.3106435643564356 0.1357260726072607 0.08292079207920793 0.03671617161716172 0.001280409731113956 0.002347417840375587 0.01600512163892446 0.3414425949637218 0.3779342723004695 0.1743491250533504 0.05761843790012804 0.02902262057191635 0.001666666666666667 0.001666666666666667 0.015 0.1483333333333333 0.3616666666666667 0.295 0.095 0.08166666666666667 0.001228501228501228 0.001842751842751843 0.009213759213759214 0.2045454545454545 0.3673218673218673 0.2426289926289926 0.1035012285012285 0.06971744471744472 0.04166666666666666 0.04166666666666666 0.04166666666666666 0.375 0.04166666666666666 0.375 0.04166666666666666 0.04166666666666666 0.01630434782608696 0.001811594202898551 0.01630434782608696 0.08876811594202899 0.3351449275362319 0.2481884057971014 0.1902173913043478 0.1032608695652174 0.125 0.125 0.125 0.125 0.125 0.125 0.125 0.125 0.001146788990825688 0.01032110091743119 0.001146788990825688 0.06536697247706422 0.3038990825688074 0.3222477064220184 0.1479357798165138 0.1479357798165138 0.01388888888888889 0.01388888888888889 0.01388888888888889 0.01388888888888889 0.4583333333333333 0.2361111111111111 0.125 0.125 0.0003246753246753247 0.0003246753246753247 0.008116883116883116 0.1743506493506493 0.3847402597402597 0.2470779220779221 0.09902597402597403 0.08603896103896104 0.01785714285714286 0.01785714285714286 0.01785714285714286 0.1607142857142857 0.01785714285714286 0.3035714285714285 0.3035714285714285 0.1607142857142857 0.0001019575856443719 0.002548939641109299 0.004180261011419249 0.09553425774877651 0.2855831973898858 0.2929241435562806 0.1607871125611746 0.1583401305057096</probabilities>
		</cpt>
		<cpt id="Smoker" diagtype="observation" ranked="true">
			<state id="Smoker" />
			<state id="Not_Smoker" />
			<parents>﻿Diabetes_012 CholCheck AnyHealthcare</parents>
			<probabilities>0.504950495049505 0.495049504950495 0.5054545454545455 0.4945454545454546 0.4861111111111111 0.5138888888888888 0.5671105193075898 0.4328894806924101 0.5 0.5 0.5 0.5 0.4 0.6000000000000001 0.5029239766081871 0.4970760233918128 0.8 0.2 0.3333333333333333 0.6666666666666666 0.472972972972973 0.5270270270270271 0.495114006514658 0.504885993485342</probabilities>
		</cpt>
		<cpt id="GenHlth" diagtype="observation" ranked="true">
			<state id="Excelent" />
			<state id="VeryGood" />
			<state id="Good" />
			<state id="Fair" />
			<state id="Poor" />
			<parents>﻿Diabetes_012 HighBP HighChol</parents>
			<probabilities>0.2974199036007939 0.3867309328040828 0.2384462716189396 0.0569889424440034 0.02041394953218032 0.1724845995893224 0.4024640657084189 0.2922655715263518 0.09856262833675565 0.03422313483915126 0.1373477672530447 0.3173207036535859 0.351150202976996 0.1414073071718539 0.05277401894451963 0.07937365010799137 0.2904967602591793 0.3709503239740821 0.1722462203023758 0.0869330453563715 0.06896551724137931 0.3103448275862069 0.4482758620689655 0.1379310344827586 0.03448275862068965 0.02439024390243903 0.2439024390243902 0.3170731707317073 0.2439024390243902 0.1707317073170732 0.00625 0.225 0.31875 0.31875 0.13125 0.05194805194805195 0.1428571428571429 0.4155844155844156 0.2207792207792208 0.1688311688311688 0.07100591715976332 0.2544378698224852 0.378698224852071 0.1893491124260355 0.106508875739645 0.05381165919282511 0.1928251121076233 0.4394618834080717 0.2286995515695067 0.08520179372197309 0.03488372093023256 0.1802325581395349 0.4040697674418605 0.2587209302325582 0.1220930232558139 0.02029312288613303 0.1296505073280722 0.363021420518602 0.2998872604284104 0.1871476888387824</probabilities>
		</cpt>
		<cpt id="PhysHlth" diagtype="observation" ranked="true">
			<state id="d_0_to_1" />
			<state id="d_1_to_3" />
			<state id="d_3_to_7" />
			<state id="d_7_to_14" />
			<state id="d_14_to_30" />
			<parents>﻿Diabetes_012 GenHlth</parents>
			<probabilities>0.8443367655966081 0.08116293155663235 0.0357359176256814 0.0145366444579043 0.02422774076317383 0.7441703278134504 0.1115241635687732 0.07536329841162555 0.03244339303818858 0.03649881716796215 0.6026677445432498 0.1196443007275667 0.1228779304769604 0.0582053354890865 0.09660468876313662 0.2531500572737686 0.07560137457044674 0.1489117983963345 0.134020618556701 0.3883161512027491 0.04986149584487535 0.008310249307479225 0.04709141274238227 0.0664819944598338 0.8282548476454293 0.65 0.15 0.025 0.15 0.025 0.7157894736842104 0.1631578947368421 0.05789473684210526 0.05789473684210526 0.005263157894736841 0.6029411764705882 0.07352941176470588 0.1029411764705882 0.1617647058823529 0.05882352941176471 0.1951219512195122 0.0975609756097561 0.1463414634146342 0.1219512195121951 0.4390243902439024 0.04615384615384616 0.007692307692307693 0.04615384615384616 0.04615384615384616 0.8538461538461539 0.7592592592592592 0.07407407407407407 0.07407407407407407 0.01851851851851852 0.07407407407407407 0.7566539923954373 0.1140684410646388 0.0532319391634981 0.03041825095057034 0.04562737642585551 0.5971107544141252 0.1139646869983949 0.115569823434992 0.06581059390048154 0.1075441412520064 0.276255707762557 0.08447488584474885 0.1484018264840183 0.1095890410958904 0.3812785388127854 0.05714285714285715 0.0163265306122449 0.02857142857142857 0.05714285714285715 0.8408163265306123</probabilities>
		</cpt>
		<cpt id="HeartDiseaseorAttack" diagtype="observation" ranked="true">
			<state id="Never_had" />
			<state id="Had_CHD_or_MI" />
			<parents>﻿Diabetes_012 HighChol PhysHlth</parents>
			<probabilities>0.9715976331360947 0.02840236686390533 0.966 0.034 0.9549763033175356 0.04502369668246446 0.9238095238095239 0.0761904761904762 0.9026369168356998 0.0973630831643002 0.894141829393628 0.1058581706063721 0.8936170212765957 0.1063829787234043 0.887459807073955 0.112540192926045 0.7897435897435897 0.2102564102564103 0.7556390977443609 0.2443609022556391 0.8709677419354839 0.1290322580645161 0.9375 0.0625 0.9444444444444444 0.05555555555555555 0.75 0.25 0.9545454545454546 0.04545454545454546 0.8627450980392157 0.1372549019607843 0.7777777777777777 0.2222222222222222 0.9444444444444444 0.05555555555555555 0.875 0.125 0.6176470588235294 0.3823529411764706 0.890625 0.109375 0.9230769230769231 0.07692307692307693 0.8679245283018867 0.1320754716981132 0.7419354838709677 0.2580645161290323 0.7355371900826446 0.2644628099173554 0.8146639511201629 0.185336048879837 0.851063829787234 0.148936170212766 0.7155963302752294 0.2844036697247707 0.728395061728395 0.2716049382716049 0.6656716417910448 0.3343283582089552</probabilities>
		</cpt>
		<cpt id="Stroke" diagtype="observation" ranked="true">
			<state id="Never_had_a_Stroke" />
			<state id="Had_a_Stroke" />
			<parents>﻿Diabetes_012 HeartDiseaseorAttack GenHlth</parents>
			<probabilities>0.9900744416873449 0.009925558312655087 0.9857651245551602 0.01423487544483986 0.9709507042253521 0.02904929577464789 0.936551724137931 0.06344827586206896 0.8984375 0.1015625 0.923076923076923 0.07692307692307693 0.9060402684563759 0.09395973154362416 0.9158415841584159 0.08415841584158416 0.8175675675675677 0.1824324324324325 0.761904761904762 0.2380952380952381 0.9375 0.0625 0.9705882352941176 0.02941176470588235 0.9915254237288136 0.008474576271186441 0.8787878787878788 0.1212121212121212 0.6470588235294118 0.3529411764705882 0.5 0.5 0.875 0.125 0.9 0.1 0.75 0.25 0.75 0.25 0.9361702127659575 0.06382978723404255 0.9665271966527196 0.03347280334728033 0.9557692307692308 0.04423076923076923 0.9057750759878419 0.09422492401215805 0.8920863309352518 0.1079136690647482 0.5714285714285714 0.4285714285714285 0.8333333333333333 0.1666666666666667 0.7961165048543689 0.2038834951456311 0.7522935779816514 0.2477064220183486 0.6226415094339622 0.3773584905660377</probabilities>
		</cpt>
		<cpt id="DiffWalk" diagtype="observation" ranked="true">
			<state id="None" />
			<state id="Difficulty_walking_or_climbing_stairs" />
			<parents>﻿Diabetes_012 HeartDiseaseorAttack PhysHlth</parents>
			<probabilities>0.9452627388535032 0.05473726114649682 0.9021879021879021 0.09781209781209781 0.8041237113402062 0.1958762886597938 0.7212643678160919 0.2787356321839081 0.4498229043683589 0.5501770956316411 0.8278145695364238 0.1721854304635762 0.7307692307692308 0.2692307692307693 0.6666666666666666 0.3333333333333333 0.5789473684210527 0.4210526315789473 0.247191011235955 0.7528089887640449 0.8732394366197184 0.1267605633802817 0.7857142857142857 0.2142857142857143 0.5 0.5 0.7058823529411764 0.2941176470588235 0.2580645161290323 0.7419354838709677 0.7272727272727273 0.2727272727272727 0.8333333333333333 0.1666666666666667 0.5 0.5 0.3333333333333333 0.6666666666666666 0.3076923076923077 0.6923076923076923 0.8280254777070064 0.1719745222929936 0.7890625 0.2109375 0.5725806451612903 0.4274193548387097 0.5487804878048781 0.451219512195122 0.3461538461538461 0.6538461538461539 0.7394957983193277 0.2605042016806722 0.611111111111111 0.3888888888888888 0.3421052631578947 0.6578947368421052 0.4 0.6 0.2013888888888889 0.798611111111111</probabilities>
		</cpt>
		<cpt id="Income" diagtype="observation" ranked="true">
			<state id="i_below_10k" />
			<state id="i_10k_to_15k" />
			<state id="i_15k_to_20k" />
			<state id="i_20k_to_25k" />
			<state id="i_25k_to_35k" />
			<state id="i_35k_to_50k" />
			<state id="i_50k_to75k" />
			<state id="i_75k_and_more" />
			<parents>﻿Diabetes_012 AnyHealthcare DiffWalk</parents>
			<probabilities>0.1264108352144469 0.06997742663656885 0.1376975169300226 0.1286681715575621 0.1399548532731377 0.1422121896162528 0.1128668171557562 0.1422121896162528 0.2666666666666667 0.2666666666666667 0.1333333333333333 0.08888888888888889 0.07777777777777778 0.05555555555555556 0.06666666666666667 0.04444444444444445 0.01882781658062557 0.02854539933191619 0.04767689037351959 0.06361979957485576 0.08852110537503796 0.1402976009717583 0.1853932584269663 0.4271181293653204 0.08590492076730609 0.1042535446205171 0.1392827356130108 0.1226021684737281 0.1226021684737281 0.1576313594662218 0.1259382819015847 0.1417848206839032 0.03125 0.28125 0.03125 0.28125 0.28125 0.03125 0.03125 0.03125 0.425 0.025 0.425 0.025 0.025 0.025 0.025 0.025 0.04424778761061947 0.07079646017699115 0.03539823008849557 0.1238938053097345 0.08849557522123894 0.168141592920354 0.1946902654867257 0.2743362831858407 0.06896551724137931 0.2241379310344828 0.08620689655172414 0.08620689655172414 0.1724137931034483 0.1206896551724138 0.1379310344827586 0.103448275862069 0.2340425531914894 0.0425531914893617 0.1276595744680851 0.2553191489361702 0.06382978723404255 0.1063829787234043 0.0851063829787234 0.0851063829787234 0.3674242424242424 0.2765151515151515 0.2462121212121212 0.03409090909090909 0.003787878787878788 0.06439393939393939 0.003787878787878788 0.003787878787878788 0.03785488958990536 0.046267087276551 0.08622502628811776 0.1135646687697161 0.1293375394321767 0.14931650893796 0.1724500525762355 0.2649842271293376 0.08937605396290051 0.1382799325463744 0.1736930860033727 0.133220910623946 0.1281618887015177 0.1399662731871838 0.1079258010118044 0.08937605396290051</probabilities>
		</cpt>
		<cpt id="Education" diagtype="observation" ranked="true">
			<state id="kindergarten" />
			<state id="Elementary_school" />
			<state id="Middle_school" />
			<state id="High_school" />
			<state id="Undergraduate_studies" />
			<state id="Graduate_studies" />
			<parents>﻿Diabetes_012 Income</parents>
			<probabilities>0.000541125541125541 0.05248917748917748 0.1628787878787878 0.3901515151515151 0.2732683982683982 0.1206709956709956 0.005434782608695652 0.05434782608695652 0.1521739130434783 0.3722826086956522 0.2907608695652174 0.125 0.0003003003003003003 0.03093093093093094 0.1300300300300301 0.4003003003003004 0.3066066066066067 0.1318318318318319 0.0002637130801687764 0.02874472573839663 0.06513713080168777 0.3895042194092828 0.3183016877637131 0.1980485232067511 0.0002083333333333333 0.01770833333333333 0.03770833333333334 0.3527083333333333 0.3302083333333334 0.2614583333333333 0.000846740050804403 0.005927180355630821 0.0270956816257409 0.2574089754445385 0.3547840812870449 0.3539373412362405 0.0007002801120448179 0.004901960784313725 0.01890756302521008 0.203781512605042 0.3207282913165266 0.4509803921568628 5.462689828471539e-05 0.002676718015951054 0.006937616082158856 0.1134600677373539 0.251447612804545 0.6254233584617066 0.09722222222222222 0.01388888888888889 0.1805555555555555 0.4305555555555556 0.2638888888888888 0.01388888888888889 0.007246376811594202 0.05072463768115942 0.2246376811594203 0.4420289855072463 0.1376811594202899 0.1376811594202899 0.01388888888888889 0.09722222222222222 0.01388888888888889 0.4305555555555556 0.2638888888888888 0.1805555555555555 0.007936507936507936 0.05555555555555556 0.007936507936507936 0.2936507936507937 0.4365079365079365 0.1984126984126984 0.007575757575757576 0.007575757575757576 0.09848484848484848 0.4166666666666666 0.3257575757575758 0.143939393939394 0.006172839506172839 0.006172839506172839 0.006172839506172839 0.154320987654321 0.6358024691358025 0.191358024691358 0.005376344086021505 0.005376344086021505 0.005376344086021505 0.2956989247311828 0.2956989247311828 0.3924731182795699 0.004385964912280702 0.004385964912280702 0.004385964912280702 0.2412280701754386 0.2149122807017544 0.5307017543859649 0.008928571428571428 0.125 0.25 0.3928571428571428 0.1428571428571428 0.08035714285714285 0.001207729468599034 0.09541062801932369 0.17512077294686 0.3562801932367151 0.2620772946859904 0.1099033816425121 0.01507537688442211 0.06030150753768844 0.1557788944723618 0.3969849246231156 0.2763819095477387 0.09547738693467336 0.0008291873963515754 0.04063018242122719 0.1053067993366501 0.3490878938640133 0.3391376451077944 0.1650082918739635 0.0008210180623973728 0.0303776683087028 0.06486042692939245 0.2619047619047619 0.3949096880131364 0.2471264367816092 0.000715307582260372 0.009298998569384835 0.030758226037196 0.271101573676681 0.3612303290414879 0.32689556509299 0.000715307582260372 0.000715307582260372 0.03505007153075822 0.1895565092989986 0.3698140200286123 0.4041487839771102 0.0005376344086021505 0.003763440860215054 0.01989247311827957 0.1134408602150538 0.239247311827957 0.6231182795698924</probabilities>
		</cpt>
		<cpt id="Veggies" diagtype="observation" ranked="true">
			<state id="Dont_eat_them_everyday" />
			<state id="Eat_them_everyday" />
			<parents>﻿Diabetes_012 Smoker Education</parents>
			<probabilities>0.125 0.875 0.196078431372549 0.803921568627451 0.3059701492537313 0.6940298507462687 0.2825396825396825 0.7174603174603175 0.1669242658423493 0.8330757341576507 0.1236559139784946 0.8763440860215054 0.75 0.25 0.4107142857142857 0.5892857142857143 0.3384615384615385 0.6615384615384615 0.2512462612163509 0.748753738783649 0.1828231292517007 0.8171768707482993 0.1270358306188925 0.8729641693811075 0.25 0.75 0.5 0.5 0.875 0.125 0.2413793103448276 0.7586206896551724 0.2068965517241379 0.7931034482758621 0.24 0.76 0.5 0.5 0.75 0.25 0.6666666666666666 0.3333333333333333 0.4285714285714285 0.5714285714285714 0.06666666666666667 0.9333333333333333 0.1666666666666667 0.8333333333333333 0.6666666666666666 0.3333333333333333 0.5185185185185185 0.4814814814814815 0.375 0.625 0.3080568720379147 0.6919431279620853 0.2297872340425532 0.7702127659574468 0.1703703703703704 0.8296296296296297 0.75 0.25 0.3448275862068966 0.6551724137931034 0.4390243902439024 0.5609756097560976 0.3274336283185841 0.6725663716814159 0.2159090909090909 0.7840909090909091 0.1598173515981735 0.8401826484018264</probabilities>
		</cpt>
		<cpt id="Fruits" diagtype="observation" ranked="true">
			<state id="Dont_eat_them_everyday" />
			<state id="Eat_them_everyday" />
			<parents>﻿Diabetes_012 Veggies</parents>
			<probabilities>0.6690741956664478 0.3309258043335522 0.3225901398086828 0.6774098601913171 0.6304347826086957 0.3695652173913043 0.4090909090909091 0.5909090909090909 0.6216867469879519 0.3783132530120482 0.3774834437086093 0.6225165562913907</probabilities>
		</cpt>
		<cpt id="PhysActivity" diagtype="observation" ranked="true">
			<state id="No" />
			<state id="Yes" />
			<parents>﻿Diabetes_012 Fruits GenHlth</parents>
			<probabilities>0.1640316205533597 0.8359683794466403 0.253953488372093 0.746046511627907 0.325875486381323 0.6741245136186771 0.4245283018867924 0.5754716981132075 0.5955056179775281 0.4044943820224719 0.08995633187772926 0.9100436681222708 0.1316348195329087 0.8683651804670913 0.2199170124481328 0.7800829875518672 0.378619153674833 0.621380846325167 0.5191256830601093 0.4808743169398907 0.25 0.75 0.2941176470588235 0.7058823529411764 0.3703703703703703 0.6296296296296295 0.5 0.5 0.6 0.4 0.875 0.125 0.15 0.8500000000000001 0.2682926829268293 0.7317073170731707 0.4285714285714285 0.5714285714285714 0.6000000000000001 0.4 0.1428571428571428 0.8571428571428571 0.3232323232323233 0.6767676767676768 0.3115384615384615 0.6884615384615385 0.4876847290640394 0.5123152709359606 0.648854961832061 0.3511450381679389 0.1818181818181818 0.8181818181818182 0.2073170731707317 0.7926829268292683 0.2754820936639119 0.7245179063360881 0.4170212765957447 0.5829787234042554 0.631578947368421 0.3684210526315789</probabilities>
		</cpt>
		<cpt id="MentHlth" diagtype="observation" ranked="true">
			<state id="d_0_to_1" />
			<state id="d_1_to_3" />
			<state id="d_3_to_7" />
			<state id="d_7_to_14" />
			<state id="d_14_to_30" />
			<parents>﻿Diabetes_012 GenHlth</parents>
			<probabilities>0.8134463961235615 0.0793458509993943 0.05572380375529982 0.02059357964869776 0.03089036947304664 0.7434944237918215 0.1007096992227104 0.0682663061845218 0.03582291314633322 0.05170665765461304 0.6705739692805174 0.08488278092158448 0.1014551333872272 0.05214227970897332 0.09094583670169765 0.4673539518900344 0.08476517754868271 0.1168384879725086 0.08476517754868271 0.2462772050400917 0.3822714681440443 0.02770083102493075 0.08864265927977839 0.07756232686980609 0.4238227146814404 0.65 0.15 0.15 0.025 0.025 0.7027027027027027 0.1351351351351351 0.08108108108108109 0.02702702702702703 0.05405405405405406 0.5588235294117647 0.1470588235294118 0.08823529411764705 0.04411764705882353 0.1617647058823529 0.2926829268292683 0.0975609756097561 0.1951219512195122 0.02439024390243903 0.3902439024390244 0.4307692307692308 0.007692307692307693 0.04615384615384616 0.1230769230769231 0.3923076923076923 0.8399999999999999 0.03999999999999999 0.09454545454545453 0.003636363636363635 0.02181818181818181 0.8555133079847909 0.0532319391634981 0.03041825095057034 0.02281368821292776 0.03802281368821293 0.7271268057784912 0.06581059390048154 0.07704654895666131 0.04173354735152488 0.08828250401284109 0.5068493150684932 0.1004566210045662 0.09817351598173515 0.0684931506849315 0.226027397260274 0.3510204081632654 0.04489795918367347 0.0816326530612245 0.06938775510204082 0.453061224489796</probabilities>
		</cpt>
		<cpt id="NoDocbcCost" diagtype="observation" ranked="true">
			<state id="Not_a_Financial_Issue" />
			<state id="Financial_Issue" />
			<parents>﻿Diabetes_012 Stroke AnyHealthcare MentHlth</parents>
			<probabilities>0.745928338762215 0.254071661237785 0.4772727272727273 0.5227272727272727 0.4130434782608696 0.5869565217391304 0.3333333333333333 0.6666666666666666 0.3333333333333334 0.6666666666666667 0.9494413936754402 0.05055860632455974 0.9199395770392749 0.08006042296072508 0.8811881188118812 0.1188118811881188 0.8212121212121212 0.1787878787878788 0.7813953488372093 0.2186046511627907 0.9285714285714285 0.07142857142857142 0.5 0.5 0.1666666666666667 0.8333333333333333 0.1666666666666667 0.8333333333333333 0.2222222222222222 0.7777777777777777 0.9155844155844156 0.08441558441558442 0.7647058823529411 0.2352941176470588 0.76 0.24 0.8 0.2 0.68 0.32 0.875 0.125 0.5 0.5 0.25 0.75 0.5 0.5 0.1666666666666667 0.8333333333333333 0.9642857142857142 0.03571428571428571 0.8947368421052631 0.1052631578947368 0.875 0.125 0.6666666666666666 0.3333333333333333 0.7419354838709677 0.2580645161290323 0.5 0.5 0.5 0.5 0.25 0.75 0.5 0.5 0.5 0.5 0.9166666666666666 0.08333333333333333 0.75 0.25 0.75 0.25 0.5 0.5 0.6666666666666666 0.3333333333333333 0.5806451612903225 0.4193548387096774 0.5555555555555556 0.4444444444444444 0.2 0.8 0.25 0.75 0.3043478260869565 0.6956521739130435 0.9381898454746137 0.06181015452538631 0.9072164948453608 0.09278350515463918 0.8737864077669902 0.1262135922330097 0.7903225806451613 0.2096774193548387 0.8028846153846154 0.1971153846153846 0.25 0.75 0.5 0.5 0.5 0.5 0.25 0.75 0.1666666666666667 0.8333333333333333 0.9010989010989011 0.09890109890109891 0.6666666666666666 0.3333333333333333 0.625 0.375 0.5833333333333333 0.4166666666666666 0.7674418604651163 0.2325581395348837</probabilities>
		</cpt>
		<cpt id="Sex" diagtype="observation" ranked="true">
			<state id="Female" />
			<state id="Male" />
			<parents>﻿Diabetes_012 Smoker PhysActivity HvyAlcoholConsump</parents>
			<probabilities>0.6778149386845039 0.3221850613154961 0.7241379310344828 0.2758620689655172 0.6132998044146409 0.3867001955853591 0.6363636363636364 0.3636363636363636 0.5837053571428571 0.4162946428571428 0.4943820224719101 0.5056179775280899 0.5057899090157155 0.4942100909842845 0.52734375 0.47265625 0.6428571428571428 0.3571428571428571 0.5 0.5 0.5901639344262295 0.4098360655737705 0.5 0.5 0.6666666666666666 0.3333333333333333 0.6666666666666666 0.3333333333333333 0.6170212765957447 0.3829787234042553 0.875 0.125 0.6884057971014493 0.3115942028985507 0.25 0.75 0.6685823754789272 0.3314176245210728 0.875 0.125 0.5107033639143731 0.4892966360856269 0.3333333333333333 0.6666666666666666 0.4394904458598726 0.5605095541401274 0.3529411764705882 0.6470588235294118</probabilities>
		</cpt>
	</nodes>
	<extensions>
		<genie version="1.0" app="GeNIe 4.1.4109.0 ACADEMIC" name="Aug_Naive_dens">
			<node id="﻿Diabetes_012">
				<name>﻿Diabetes_012</name>
				<interior color="ffff80" />
				<outline color="000080" />
				<font color="000000" name="Arial" size="8" />
				<position>756 542 828 590</position>
				<barchart active="true" width="128" height="72" />
			</node>
			<node id="HighBP">
				<name>HighBP</name>
				<interior color="e5f6f7" />
				<outline color="000080" />
				<font color="000000" name="Arial" size="8" />
				<position>1337 651 1409 699</position>
				<barchart active="true" width="128" height="64" />
			</node>
			<node id="HighChol">
				<name>HighChol</name>
				<interior color="e5f6f7" />
				<outline color="000080" />
				<font color="000000" name="Arial" size="8" />
				<position>1209 772 1281 820</position>
				<barchart active="true" width="128" height="64" />
			</node>
			<node id="CholCheck">
				<name>CholCheck</name>
				<interior color="e5f6f7" />
				<outline color="000080" />
				<font color="000000" name="Arial" size="8" />
				<position>1084 885 1156 933</position>
				<barchart active="true" width="128" height="64" />
			</node>
			<node id="BMI">
				<name>BMI</name>
				<interior color="e5f6f7" />
				<outline color="000080" />
				<font color="000000" name="Arial" size="8" />
				<position>898 1008 970 1056</position>
				<barchart active="true" width="128" height="162" />
			</node>
			<node id="Smoker">
				<name>Smoker</name>
				<interior color="e5f6f7" />
				<outline color="000080" />
				<font color="000000" name="Arial" size="8" />
				<position>721 1087 793 1135</position>
				<barchart active="true" width="128" height="64" />
			</node>
			<node id="Stroke">
				<name>Stroke</name>
				<interior color="e5f6f7" />
				<outline color="000080" />
				<font color="000000" name="Arial" size="8" />
				<position>585 997 657 1045</position>
				<barchart active="true" width="128" height="64" />
			</node>
			<node id="HeartDiseaseorAttack">
				<name>HeartDiseaseorAttack</name>
				<interior color="e5f6f7" />
				<outline color="000080" />
				<font color="000000" name="Arial" size="8" />
				<position>449 906 521 954</position>
				<barchart active="true" width="128" height="64" />
			</node>
			<node id="PhysActivity">
				<name>PhysActivity</name>
				<interior color="e5f6f7" />
				<outline color="000080" />
				<font color="000000" name="Arial" size="8" />
				<position>347 802 419 850</position>
				<barchart active="true" width="128" height="64" />
			</node>
			<node id="Fruits">
				<name>Fruits</name>
				<interior color="e5f6f7" />
				<outline color="000080" />
				<font color="000000" name="Arial" size="8" />
				<position>263 682 335 730</position>
				<barchart active="true" width="128" height="64" />
			</node>
			<node id="Veggies">
				<name>Veggies</name>
				<interior color="e5f6f7" />
				<outline color="000080" />
				<font color="000000" name="Arial" size="8" />
				<position>155 571 227 619</position>
				<barchart active="true" width="128" height="64" />
			</node>
			<node id="HvyAlcoholConsump">
				<name>HvyAlcoholConsump</name>
				<interior color="e5f6f7" />
				<outline color="000080" />
				<font color="000000" name="Arial" size="8" />
				<position>91 468 163 516</position>
				<barchart active="true" width="128" height="64" />
			</node>
			<node id="AnyHealthcare">
				<name>AnyHealthcare</name>
				<interior color="e5f6f7" />
				<outline color="000080" />
				<font color="000000" name="Arial" size="8" />
				<position>104 352 176 400</position>
				<barchart active="true" width="128" height="64" />
			</node>
			<node id="NoDocbcCost">
				<name>NoDocbcCost</name>
				<interior color="e5f6f7" />
				<outline color="000080" />
				<font color="000000" name="Arial" size="8" />
				<position>160 222 232 270</position>
				<barchart active="true" width="128" height="64" />
			</node>
			<node id="GenHlth">
				<name>GenHlth</name>
				<interior color="e5f6f7" />
				<outline color="000080" />
				<font color="000000" name="Arial" size="8" />
				<position>308 122 380 170</position>
				<barchart active="true" width="128" height="108" />
			</node>
			<node id="MentHlth">
				<name>MentHlth</name>
				<interior color="e5f6f7" />
				<outline color="000080" />
				<font color="000000" name="Arial" size="8" />
				<position>497 50 569 98</position>
				<barchart active="true" width="128" height="108" />
			</node>
			<node id="PhysHlth">
				<name>PhysHlth</name>
				<interior color="e5f6f7" />
				<outline color="000080" />
				<font color="000000" name="Arial" size="8" />
				<position>678 45 750 93</position>
				<barchart active="true" width="128" height="108" />
			</node>
			<node id="DiffWalk">
				<name>DiffWalk</name>
				<interior color="e5f6f7" />
				<outline color="000080" />
				<font color="000000" name="Arial" size="8" />
				<position>877 47 949 95</position>
				<barchart active="true" width="128" height="64" />
			</node>
			<node id="Sex">
				<name>Sex</name>
				<interior color="e5f6f7" />
				<outline color="000080" />
				<font color="000000" name="Arial" size="8" />
				<position>1040 71 1112 119</position>
				<barchart active="true" width="128" height="64" />
			</node>
			<node id="Age">
				<name>Age</name>
				<interior color="e5f6f7" />
				<outline color="000080" />
				<font color="000000" name="Arial" size="8" />
				<position>1202 193 1274 241</position>
				<barchart active="true" width="128" height="252" />
			</node>
			<node id="Education">
				<name>Education</name>
				<interior color="e5f6f7" />
				<outline color="000080" />
				<font color="000000" name="Arial" size="8" />
				<position>1392 308 1464 356</position>
				<barchart active="true" width="128" height="126" />
			</node>
			<node id="Income">
				<name>Income</name>
				<interior color="e5f6f7" />
				<outline color="000080" />
				<font color="000000" name="Arial" size="8" />
				<position>1530 521 1602 569</position>
				<barchart active="true" width="128" height="162" />
			</node>
			<textbox>
				<caption>Input file: Diabietes_dens.csv\nData rows: 10119\nElapsed time: 2.672s\n\nLearning algorithm: Augmented Naive Bayes\nAlgorithm parameters:\nClass variable: ﻿Diabetes_012\nFeature selection: no\nMax parent count: 8\nIterations: 20\nSample size: 50\nLink probability: 0.1\nPrior link probability: 0.001\nSeed: 0\nMax search time: 0\n\nBest score in iteration 10: -170252\nEM Log Likelihood: -168653</caption>
				<font color="000000" name="Arial" size="8" />
				<position>52 881 264 1133</position>
			</textbox>
		</genie>
	</extensions>
</smile>
