<?xml version="1.0" encoding="UTF-8"?>
<!-- This network was created in GeNIe Academic, which can be used for academic teaching and research purposes only -->
<smile version="1.0" id="Diabietes_dens" numsamples="10000" discsamples="10000">
	<nodes>
		<cpt id="﻿Diabetes_012" diagtype="target">
			<state id="Not_Diabetes" fault="true" />
			<state id="Prediabetes" fault="true" />
			<state id="Diabetes" fault="true" />
			<probabilities>0.8220179859669928 0.01759067101492242 0.1603913430180848</probabilities>
		</cpt>
		<cpt id="Smoker" diagtype="observation" ranked="true">
			<state id="Smoker" />
			<state id="Not_Smoker" />
			<parents>﻿Diabetes_012</parents>
			<probabilities>0.5601106035104593 0.4398893964895407 0.5 0.5 0.4941466420209489 0.5058533579790512</probabilities>
		</cpt>
		<cpt id="GenHlth" diagtype="observation" ranked="true">
			<state id="Excelent" />
			<state id="VeryGood" />
			<state id="Good" />
			<state id="Fair" />
			<state id="Poor" />
			<parents>Smoker ﻿Diabetes_012</parents>
			<probabilities>0.2337411461687057 0.3764756385490449 0.2801030264005151 0.08285039708091865 0.02682979180081562 0.0449438202247191 0.2359550561797753 0.3707865168539326 0.2022471910112359 0.1460674157303371 0.03740648379052369 0.1695760598503741 0.4239401496259351 0.2506234413965087 0.1184538653366583 0.1535938781087729 0.3293249521727248 0.3194861984148674 0.1330964744465701 0.06449849685706477 0.03370786516853932 0.1797752808988764 0.3932584269662921 0.2584269662921348 0.1348314606741573 0.0292326431181486 0.1546894031668697 0.3447015834348355 0.2886723507917174 0.1827040194884287</probabilities>
		</cpt>
		<cpt id="Income" diagtype="observation" ranked="true">
			<state id="i_below_10k" />
			<state id="i_10k_to_15k" />
			<state id="i_15k_to_20k" />
			<state id="i_20k_to_25k" />
			<state id="i_25k_to_35k" />
			<state id="i_35k_to_50k" />
			<state id="i_50k_to75k" />
			<state id="i_75k_and_more" />
			<parents>GenHlth ﻿Diabetes_012</parents>
			<probabilities>0.01635372501514234 0.01695941853422168 0.03755299818291944 0.04784978800726832 0.06904906117504543 0.1253785584494246 0.1823137492428831 0.5045427013930951 0.015625 0.015625 0.015625 0.140625 0.140625 0.265625 0.390625 0.015625 0.01851851851851852 0.1481481481481481 0.09259259259259259 0.1666666666666667 0.05555555555555555 0.09259259259259259 0.2592592592592592 0.1666666666666667 0.01250422440013518 0.02433254477864143 0.04123014531936465 0.05745184183845894 0.0909090909090909 0.1409259885096316 0.1926326461642447 0.4400135180804325 0.02960526315789474 0.003289473684210526 0.02960526315789474 0.1348684210526316 0.1085526315789474 0.1875 0.1611842105263158 0.3453947368421053 0.04182509505703422 0.03041825095057034 0.08365019011406843 0.09125475285171103 0.09125475285171103 0.1634980988593156 0.1863117870722434 0.311787072243346 0.04365400161681487 0.04527081649151172 0.07679870654810024 0.08690379951495553 0.1095392077607114 0.1612772837510105 0.1685529506871463 0.3080032336297494 0.01470588235294118 0.1176470588235294 0.04411764705882353 0.1470588235294118 0.1176470588235294 0.1470588235294118 0.1617647058823529 0.25 0.03852327447833066 0.05778491171749599 0.09791332263242375 0.1123595505617977 0.14446227929374 0.1573033707865168 0.1573033707865168 0.2343499197431782 0.09851088201603667 0.1111111111111111 0.13631156930126 0.134020618556701 0.1225658648339061 0.127147766323024 0.1260022909507446 0.1443298969072165 0.1463414634146342 0.1707317073170732 0.0975609756097561 0.07317073170731708 0.1219512195121951 0.1463414634146342 0.1219512195121951 0.1219512195121951 0.08904109589041095 0.1210045662100457 0.1301369863013699 0.1415525114155251 0.1415525114155251 0.1438356164383562 0.0958904109589041 0.136986301369863 0.1357340720221607 0.1634349030470914 0.1689750692520776 0.1385041551246537 0.1052631578947368 0.1301939058171745 0.08310249307479224 0.07479224376731301 0.12 0.28 0.12 0.04 0.12 0.04 0.2 0.08 0.1510204081632653 0.1306122448979592 0.2204081632653062 0.1428571428571429 0.09387755102040818 0.09387755102040818 0.1183673469387755 0.0489795918367347</probabilities>
		</cpt>
		<cpt id="Age" diagtype="observation" ranked="true">
			<state id="a18_24" />
			<state id="a25_29" />
			<state id="a30_34" />
			<state id="a35_39" />
			<state id="a40_44" />
			<state id="a45_49" />
			<state id="a50_54" />
			<state id="a55_59" />
			<state id="a60_64" />
			<state id="a65_69" />
			<state id="a70_74" />
			<state id="a75_79" />
			<state id="a80_plus" />
			<parents>Income ﻿Diabetes_012</parents>
			<probabilities>0.04234527687296417 0.02931596091205212 0.07166123778501629 0.05537459283387623 0.08794788273615635 0.07817589576547232 0.1433224755700326 0.1335504885993485 0.1302931596091205 0.08794788273615635 0.07817589576547232 0.0488599348534202 0.01302931596091205 0.006410256410256411 0.006410256410256411 0.006410256410256411 0.08974358974358974 0.08974358974358974 0.08974358974358974 0.08974358974358974 0.08974358974358974 0.1730769230769231 0.1730769230769231 0.006410256410256411 0.08974358974358974 0.08974358974358974 0.0006807351940095301 0.009530292716133421 0.01837985023825732 0.02722940776038121 0.06262763784887677 0.08032675289312456 0.1334240980258679 0.204220558202859 0.1511232130701157 0.1511232130701157 0.07147719537100067 0.05377808032675288 0.03607896528250509 0.04347826086956522 0.02445652173913043 0.03260869565217391 0.04347826086956522 0.04891304347826086 0.05978260869565218 0.09782608695652173 0.1168478260869565 0.1222826086956522 0.1440217391304348 0.1114130434782609 0.05706521739130434 0.09782608695652173 0.003344481605351171 0.003344481605351171 0.003344481605351171 0.003344481605351171 0.003344481605351171 0.09030100334448161 0.09030100334448161 0.177257525083612 0.2642140468227425 0.1337792642140468 0.003344481605351171 0.09030100334448161 0.1337792642140468 0.0005574136008918618 0.007803790412486064 0.0005574136008918618 0.05852842809364548 0.01505016722408027 0.05128205128205128 0.1092530657748049 0.1020066889632107 0.1454849498327759 0.1092530657748049 0.1889632107023412 0.1309921962095875 0.0802675585284281 0.03429602888086643 0.04151624548736462 0.04873646209386281 0.03971119133574007 0.04873646209386281 0.05595667870036101 0.1083032490974729 0.1028880866425993 0.1209386281588448 0.1101083032490975 0.1010830324909747 0.06859205776173286 0.1191335740072202 0.00641025641025641 0.00641025641025641 0.08974358974358973 0.00641025641025641 0.00641025641025641 0.1730769230769231 0.00641025641025641 0.08974358974358973 0.1730769230769231 0.1730769230769231 0.08974358974358973 0.00641025641025641 0.1730769230769231 0.005025125628140704 0.005025125628140704 0.01005025125628141 0.01005025125628141 0.02512562814070352 0.05527638190954774 0.08040201005025126 0.135678391959799 0.1758793969849246 0.1608040201005025 0.1256281407035176 0.1105527638190955 0.1005025125628141 0.0364500792393027 0.0427892234548336 0.03961965134706814 0.04595879556259905 0.0364500792393027 0.05863708399366085 0.06497622820919176 0.1045958795562599 0.1141045958795563 0.1236133122028526 0.1172741679873217 0.09825673534072901 0.1172741679873217 0.003663003663003663 0.003663003663003663 0.003663003663003663 0.003663003663003663 0.09890109890109891 0.003663003663003663 0.003663003663003663 0.003663003663003663 0.2893772893772893 0.2417582417582417 0.09890109890109891 0.1465201465201465 0.09890109890109891 0.005 0.015 0.01 0.025 0.03 0.06 0.05 0.09 0.115 0.165 0.185 0.115 0.135 0.03128911138923655 0.03754693366708386 0.03879849812265332 0.06758448060075094 0.06007509386733417 0.03879849812265332 0.08760951188986232 0.09762202753441802 0.1076345431789737 0.1426783479349187 0.09887359198998749 0.1038798498122653 0.08760951188986232 0.003496503496503497 0.003496503496503497 0.003496503496503497 0.1398601398601399 0.003496503496503497 0.04895104895104895 0.09440559440559441 0.1398601398601399 0.1853146853146853 0.09440559440559441 0.09440559440559441 0.04895104895104895 0.1398601398601399 0.0003789314134141721 0.0003789314134141721 0.02008336491095112 0.01023114816218265 0.02993558165971959 0.02500947328533536 0.07427055702917773 0.1284577491474043 0.1432360742705571 0.1678666161424782 0.1481621826449413 0.1383099658961728 0.1136794240242516 0.0270956816257409 0.04403048264182895 0.04741744284504657 0.06350550381033022 0.0584250635055038 0.0575783234546994 0.07197290431837426 0.08890770533446232 0.1227773073666384 0.1430990685859441 0.1058425063505504 0.0855207451312447 0.0838272650296359 0.00284900284900285 0.00284900284900285 0.07692307692307694 0.00284900284900285 0.03988603988603989 0.07692307692307694 0.00284900284900285 0.150997150997151 0.00284900284900285 0.2991452991452992 0.150997150997151 0.150997150997151 0.03988603988603989 0.004621987454605481 0.0003301419610432487 0.0003301419610432487 0.01749752393529218 0.02178936942885441 0.03895675140310334 0.0861670518322879 0.1162099702872235 0.1505447342357214 0.2406734896005283 0.1333773522614725 0.0861670518322879 0.1033344338065368 0.015406162464986 0.03361344537815126 0.05252100840336135 0.05882352941176471 0.05882352941176471 0.0861344537815126 0.1260504201680672 0.1183473389355742 0.1253501400560224 0.1225490196078431 0.09943977591036415 0.05672268907563025 0.04621848739495799 0.002481389578163772 0.03473945409429281 0.002481389578163772 0.03473945409429281 0.03473945409429281 0.03473945409429281 0.196029776674938 0.196029776674938 0.06699751861042186 0.228287841191067 0.03473945409429281 0.09925558312655089 0.03473945409429281 0.0003301419610432486 0.0003301419610432486 0.00462198745460548 0.01320567844172994 0.03037306041597887 0.03895675140310333 0.06041597887091449 0.124793661274348 0.1505447342357214 0.2320897986134038 0.1720039617035325 0.07329151535160118 0.09904258831297458 0.01573770491803279 0.0219672131147541 0.04065573770491803 0.07311475409836066 0.09573770491803278 0.1170491803278688 0.1373770491803279 0.139344262295082 0.1354098360655738 0.1022950819672131 0.06131147540983607 0.03573770491803278 0.02426229508196721 0.002024291497975709 0.05465587044534413 0.002024291497975709 0.02834008097165992 0.02834008097165992 0.1072874493927125 0.1336032388663967 0.1072874493927125 0.1862348178137652 0.159919028340081 0.02834008097165992 0.05465587044534413 0.1072874493927125 0.0002481389578163772 0.0002481389578163772 0.006699751861042183 0.009925558312655087 0.03573200992555831 0.07444168734491315 0.1163771712158809 0.1647642679900744 0.1808933002481389 0.1808933002481389 0.1228287841191067 0.05508684863523573 0.05186104218362282</probabilities>
		</cpt>
		<cpt id="HighBP" diagtype="observation" ranked="true">
			<state id="No" />
			<state id="Yes" />
			<parents>Age ﻿Diabetes_012</parents>
			<probabilities>0.8989898989898991 0.101010101010101 0.5 0.5 0.6666666666666666 0.3333333333333333 0.8943396226415095 0.1056603773584906 0.875 0.125 0.8333333333333333 0.1666666666666667 0.8037634408602151 0.196236559139785 0.6666666666666666 0.3333333333333333 0.4615384615384616 0.5384615384615385 0.7942307692307693 0.2057692307692308 0.8333333333333333 0.1666666666666667 0.3666666666666666 0.6333333333333333 0.738095238095238 0.2619047619047619 0.5 0.5 0.4693877551020408 0.5306122448979591 0.7128427128427128 0.2871572871572872 0.2307692307692308 0.7692307692307693 0.3411764705882353 0.6588235294117647 0.6288770053475936 0.3711229946524064 0.5 0.5 0.2907801418439716 0.7092198581560284 0.6138211382113822 0.3861788617886179 0.3913043478260869 0.6086956521739131 0.2418604651162791 0.7581395348837209 0.5329512893982807 0.4670487106017192 0.3448275862068966 0.6551724137931034 0.208 0.792 0.4721941354903944 0.5278058645096056 0.3142857142857143 0.6857142857142857 0.1818181818181818 0.8181818181818181 0.4271978021978022 0.5728021978021979 0.4545454545454546 0.5454545454545454 0.2340425531914894 0.7659574468085106 0.3941176470588235 0.6058823529411764 0.3125 0.6875 0.1788079470198675 0.8211920529801324 0.4171779141104295 0.5828220858895706 0.3529411764705882 0.6470588235294118 0.2364864864864865 0.7635135135135136</probabilities>
		</cpt>
		<cpt id="HighChol" diagtype="observation" ranked="true">
			<state id="No" />
			<state id="Yes" />
			<parents>Age ﻿Diabetes_012</parents>
			<probabilities>0.9090909090909092 0.09090909090909091 0.5 0.5 0.875 0.125 0.8716981132075472 0.1283018867924528 0.875 0.125 0.8333333333333333 0.1666666666666667 0.8521505376344086 0.1478494623655914 0.875 0.125 0.4615384615384616 0.5384615384615385 0.8057692307692308 0.1942307692307692 0.5 0.5 0.3333333333333333 0.6666666666666666 0.7346938775510203 0.2653061224489796 0.5 0.5 0.4693877551020408 0.5306122448979591 0.6666666666666666 0.3333333333333333 0.3846153846153846 0.6153846153846154 0.4 0.6 0.6245989304812835 0.3754010695187166 0.4375 0.5625 0.2340425531914894 0.7659574468085106 0.5660569105691058 0.4339430894308944 0.2173913043478261 0.7826086956521738 0.3209302325581395 0.6790697674418604 0.5291308500477555 0.4708691499522445 0.2413793103448276 0.7586206896551724 0.324 0.676 0.4823053589484328 0.5176946410515673 0.2285714285714286 0.7714285714285714 0.2727272727272727 0.7272727272727273 0.4436813186813187 0.5563186813186813 0.5454545454545454 0.4545454545454546 0.3063829787234043 0.6936170212765957 0.4274509803921568 0.5725490196078431 0.3125 0.6875 0.3112582781456953 0.6887417218543046 0.5132924335378324 0.4867075664621677 0.2941176470588235 0.7058823529411764 0.3310810810810811 0.668918918918919</probabilities>
		</cpt>
		<cpt id="NoDocbcCost" diagtype="observation" ranked="true">
			<state id="Not_a_Financial_Issue" />
			<state id="Financial_Issue" />
			<parents>Income ﻿Diabetes_012</parents>
			<probabilities>0.6905537459283388 0.3094462540716613 0.7272727272727273 0.2727272727272727 0.6517857142857143 0.3482142857142857 0.75 0.25 0.7727272727272727 0.2272727272727273 0.7372262773722628 0.2627737226277372 0.7725631768953068 0.2274368231046932 0.6363636363636364 0.3636363636363636 0.7939698492462312 0.2060301507537688 0.8240887480190174 0.1759112519809826 0.9 0.1 0.835 0.165 0.8573216520650814 0.1426783479349187 0.9047619047619047 0.09523809523809523 0.9455445544554456 0.05445544554455446 0.9068585944115156 0.09314140558848433 0.9230769230769231 0.07692307692307693 0.9310344827586207 0.06896551724137931 0.9320728291316527 0.06792717086834733 0.9666666666666667 0.03333333333333333 0.9094827586206896 0.09051724137931035 0.9652459016393442 0.03475409836065574 0.8648648648648649 0.1351351351351351 0.9579288025889968 0.04207119741100324</probabilities>
		</cpt>
		<cpt id="AnyHealthcare" diagtype="observation" ranked="true">
			<state id="None" />
			<state id="Has_health_care" />
			<parents>NoDocbcCost ﻿Diabetes_012</parents>
			<probabilities>0.04231953930628098 0.9576804606937191 0.01948051948051948 0.9805194805194806 0.02335456475583864 0.9766454352441614 0.254994124559342 0.745005875440658 0.1666666666666667 0.8333333333333333 0.2190476190476191 0.7809523809523811</probabilities>
		</cpt>
		<cpt id="CholCheck" diagtype="observation" ranked="true">
			<state id="Not_tested_in_last_5yrs" />
			<state id="Tested_in_last_5yrs" />
			<parents>AnyHealthcare ﻿Diabetes_012</parents>
			<probabilities>0.1894934333958724 0.8105065666041276 0.2857142857142857 0.7142857142857142 0.06329113924050633 0.9367088607594937 0.03532434168272319 0.9646756583172769 0.002906976744186046 0.9970930232558139 0.005829015544041451 0.9941709844559586</probabilities>
		</cpt>
		<cpt id="BMI" diagtype="observation" ranked="true">
			<state id="Severe_thinness" />
			<state id="Moderate_thinness" />
			<state id="Mild_thinness" />
			<state id="Normal_range" />
			<state id="Overweight" />
			<state id="Obese_Class_I" />
			<state id="Obese_Class_II" />
			<state id="Obese_Class_III" />
			<parents>GenHlth ﻿Diabetes_012</parents>
			<probabilities>0.001211387038158692 0.002422774076317383 0.01574803149606299 0.4233797698364627 0.3785584494245912 0.1399152029073289 0.02483343428225318 0.01393095093882495 0.015625 0.015625 0.015625 0.015625 0.640625 0.265625 0.015625 0.015625 0.002272727272727273 0.002272727272727273 0.002272727272727273 0.1840909090909091 0.3840909090909091 0.2386363636363636 0.1295454545454545 0.05681818181818182 0.0003379520108144643 0.001013856032443393 0.01081446434606286 0.2903007772896248 0.4045285569449138 0.1997296383913484 0.06691449814126393 0.02636025684352822 0.003289473684210526 0.02960526315789474 0.003289473684210526 0.1611842105263158 0.4506578947368421 0.1875 0.08223684210526315 0.08223684210526315 0.0004734848484848485 0.0004734848484848485 0.008049242424242424 0.1709280303030303 0.3565340909090909 0.3072916666666667 0.1103219696969697 0.0459280303030303 0.0008084074373484236 0.001616814874696847 0.01212611156022635 0.2243330638641875 0.3504446240905416 0.2356507679870655 0.110751818916734 0.06426839126919967 0.001811594202898551 0.001811594202898551 0.01630434782608696 0.07427536231884058 0.2336956521739131 0.3061594202898551 0.2336956521739131 0.1322463768115942 0.0002003205128205128 0.001802884615384615 0.003405448717948718 0.09795673076923077 0.3078926282051282 0.320713141025641 0.147636217948718 0.1203926282051282 0.002290950744558992 0.003436426116838488 0.02405498281786942 0.2222222222222222 0.3310423825887743 0.2142038946162658 0.1111111111111111 0.09163802978235969 0.002976190476190476 0.002976190476190476 0.002976190476190476 0.002976190476190476 0.3125 0.3363095238095238 0.1934523809523809 0.1458333333333333 0.0002847380410022779 0.002562642369020501 0.004840546697038724 0.1027904328018223 0.2827448747152619 0.2417425968109339 0.1665717539863326 0.1984624145785877 0.008310249307479225 0.008310249307479225 0.01385041551246537 0.2576177285318559 0.3047091412742382 0.2160664819944598 0.08033240997229917 0.110803324099723 0.04326923076923077 0.004807692307692308 0.004807692307692308 0.1201923076923077 0.1971153846153846 0.3509615384615385 0.08173076923076923 0.1971153846153846 0.0005081300813008131 0.004573170731707318 0.008638211382113821 0.09806910569105692 0.2891260162601627 0.2362804878048781 0.1509146341463415 0.211890243902439</probabilities>
		</cpt>
		<cpt id="Stroke" diagtype="observation" ranked="true">
			<state id="Never_had_a_Stroke" />
			<state id="Had_a_Stroke" />
			<parents>GenHlth ﻿Diabetes_012</parents>
			<probabilities>0.9884918231374924 0.01150817686250757 0.9375 0.0625 0.8888888888888888 0.1111111111111111 0.9817505914160188 0.01824940858398107 0.972972972972973 0.02702702702702703 0.9543726235741444 0.04562737642585551 0.9664510913500404 0.03354890864995957 0.9852941176470588 0.01470588235294118 0.9293739967897271 0.07062600321027288 0.9163802978235969 0.08361970217640322 0.8536585365853658 0.1463414634146342 0.867579908675799 0.1324200913242009 0.8587257617728532 0.1412742382271468 0.68 0.32 0.7755102040816327 0.2244897959183674</probabilities>
		</cpt>
		<cpt id="HeartDiseaseorAttack" diagtype="observation" ranked="true">
			<state id="Never_had" />
			<state id="Had_CHD_or_MI" />
			<parents>Age ﻿Diabetes_012</parents>
			<probabilities>0.9974874371859297 0.002512562814070352 0.5 0.5 0.875 0.125 0.9886792452830189 0.01132075471698113 0.875 0.125 0.9285714285714285 0.07142857142857142 0.9865591397849464 0.01344086021505377 0.875 0.125 0.9230769230769231 0.07692307692307693 0.9846153846153847 0.01538461538461539 0.9285714285714285 0.07142857142857142 0.9333333333333333 0.06666666666666667 0.9846938775510203 0.01530612244897959 0.6666666666666666 0.3333333333333333 0.9795918367346939 0.02040816326530612 0.976911976911977 0.02308802308802309 0.9642857142857142 0.03571428571428571 0.8352941176470589 0.1647058823529412 0.9486631016042781 0.05133689839572193 0.9705882352941176 0.02941176470588235 0.8652482269503546 0.1347517730496454 0.9400406504065042 0.05995934959349594 0.8260869565217391 0.1739130434782609 0.8372093023255813 0.1627906976744186 0.9111747851002865 0.08882521489971347 0.8275862068965517 0.1724137931034483 0.804 0.196 0.8806875631951466 0.1193124368048534 0.9428571428571428 0.05714285714285714 0.7643097643097643 0.2356902356902357 0.8640109890109891 0.135989010989011 0.8181818181818182 0.1818181818181818 0.7319148936170213 0.2680851063829787 0.8529411764705882 0.1470588235294118 0.625 0.375 0.695364238410596 0.304635761589404 0.7750511247443763 0.2249488752556237 0.5294117647058824 0.4705882352941176 0.668918918918919 0.3310810810810811</probabilities>
		</cpt>
		<cpt id="PhysActivity" diagtype="observation" ranked="true">
			<state id="No" />
			<state id="Yes" />
			<parents>GenHlth ﻿Diabetes_012</parents>
			<probabilities>0.1126589945487583 0.8873410054512416 0.5714285714285714 0.4285714285714285 0.1666666666666667 0.8333333333333333 0.1760729976343359 0.823927002365664 0.2162162162162162 0.7837837837837838 0.2509505703422053 0.7490494296577946 0.2639450282942603 0.7360549717057396 0.3088235294117647 0.6911764705882353 0.2905296950240771 0.7094703049759229 0.4009163802978236 0.5990836197021764 0.4634146341463415 0.5365853658536586 0.4497716894977168 0.550228310502283 0.556786703601108 0.443213296398892 0.6 0.4 0.6408163265306123 0.3591836734693878</probabilities>
		</cpt>
		<cpt id="Veggies" diagtype="observation" ranked="true">
			<state id="Dont_eat_them_everyday" />
			<state id="Eat_them_everyday" />
			<parents>Income ﻿Diabetes_012</parents>
			<probabilities>0.3648208469055375 0.6351791530944626 0.3636363636363636 0.6363636363636364 0.4196428571428571 0.5803571428571428 0.3016304347826087 0.6983695652173912 0.5909090909090909 0.4090909090909091 0.3430656934306569 0.656934306569343 0.2671480144404332 0.7328519855595668 0.2727272727272727 0.7272727272727273 0.3618090452261307 0.6381909547738693 0.2709984152139461 0.7290015847860539 0.25 0.75 0.33 0.67 0.2152690863579474 0.7847309136420526 0.1428571428571428 0.8571428571428571 0.2326732673267327 0.7673267326732673 0.174428450465707 0.8255715495342929 0.2307692307692308 0.7692307692307693 0.1939655172413793 0.8060344827586207 0.1519607843137255 0.8480392156862745 0.2333333333333333 0.7666666666666666 0.2068965517241379 0.7931034482758621 0.1265573770491803 0.8734426229508196 0.1351351351351351 0.8648648648648649 0.1391585760517799 0.8608414239482201</probabilities>
		</cpt>
		<cpt id="Fruits" diagtype="observation" ranked="true">
			<state id="Dont_eat_them_everyday" />
			<state id="Eat_them_everyday" />
			<parents>Veggies ﻿Diabetes_012</parents>
			<probabilities>0.6690741956664478 0.3309258043335522 0.6304347826086957 0.3695652173913043 0.6216867469879519 0.3783132530120482 0.3225901398086828 0.6774098601913171 0.4090909090909091 0.5909090909090909 0.3774834437086093 0.6225165562913907</probabilities>
		</cpt>
		<cpt id="HvyAlcoholConsump" diagtype="observation" ranked="true">
			<state id="Not_heavy_drinker" />
			<state id="Heavy_drinket" />
			<parents>Smoker ﻿Diabetes_012</parents>
			<probabilities>0.9607211848036059 0.03927881519639408 0.9944444444444445 0.005555555555555556 0.9950124688279302 0.004987531172069825 0.905711943153867 0.09428805684613281 0.9325842696629213 0.06741573033707865 0.9719853836784409 0.02801461632155907</probabilities>
		</cpt>
		<cpt id="PhysHlth" diagtype="observation" ranked="true">
			<state id="d_0_to_1" />
			<state id="d_1_to_3" />
			<state id="d_3_to_7" />
			<state id="d_7_to_14" />
			<state id="d_14_to_30" />
			<parents>GenHlth ﻿Diabetes_012</parents>
			<probabilities>0.8443367655966081 0.08116293155663235 0.0357359176256814 0.0145366444579043 0.02422774076317383 0.65 0.15 0.025 0.15 0.025 0.7592592592592592 0.07407407407407407 0.07407407407407407 0.01851851851851852 0.07407407407407407 0.7441703278134504 0.1115241635687732 0.07536329841162555 0.03244339303818858 0.03649881716796215 0.7157894736842104 0.1631578947368421 0.05789473684210526 0.05789473684210526 0.005263157894736841 0.7566539923954373 0.1140684410646388 0.0532319391634981 0.03041825095057034 0.04562737642585551 0.6026677445432498 0.1196443007275667 0.1228779304769604 0.0582053354890865 0.09660468876313662 0.6029411764705882 0.07352941176470588 0.1029411764705882 0.1617647058823529 0.05882352941176471 0.5971107544141252 0.1139646869983949 0.115569823434992 0.06581059390048154 0.1075441412520064 0.2531500572737686 0.07560137457044674 0.1489117983963345 0.134020618556701 0.3883161512027491 0.1951219512195122 0.0975609756097561 0.1463414634146342 0.1219512195121951 0.4390243902439024 0.276255707762557 0.08447488584474885 0.1484018264840183 0.1095890410958904 0.3812785388127854 0.04986149584487535 0.008310249307479225 0.04709141274238227 0.0664819944598338 0.8282548476454293 0.04615384615384616 0.007692307692307693 0.04615384615384616 0.04615384615384616 0.8538461538461539 0.05714285714285715 0.0163265306122449 0.02857142857142857 0.05714285714285715 0.8408163265306123</probabilities>
		</cpt>
		<cpt id="MentHlth" diagtype="observation" ranked="true">
			<state id="d_0_to_1" />
			<state id="d_1_to_3" />
			<state id="d_3_to_7" />
			<state id="d_7_to_14" />
			<state id="d_14_to_30" />
			<parents>PhysHlth ﻿Diabetes_012</parents>
			<probabilities>0.7850168982350733 0.07472775065715359 0.06158467893353361 0.02910251595944423 0.04956815621479534 0.6951219512195123 0.08536585365853659 0.08536585365853659 0.03658536585365854 0.0975609756097561 0.8179384203480589 0.05756358768406961 0.05087014725568943 0.02275769745649264 0.05087014725568943 0.6043425814234017 0.1773220747889023 0.1025331724969843 0.05428226779252111 0.06151990349819059 0.3647058823529413 0.4823529411764707 0.07058823529411766 0.01176470588235294 0.07058823529411766 0.6506849315068493 0.1438356164383562 0.06164383561643835 0.04794520547945205 0.0958904109589041 0.5484311050477489 0.1282401091405184 0.1541609822646658 0.07639836289222374 0.0927694406548431 0.5411764705882354 0.01176470588235294 0.3647058823529413 0.01176470588235294 0.07058823529411766 0.5246913580246914 0.1419753086419753 0.1049382716049383 0.07407407407407407 0.154320987654321 0.4740740740740741 0.08641975308641975 0.1481481481481481 0.1135802469135802 0.1777777777777778 0.3 0.15 0.15 0.1 0.3 0.5178571428571428 0.05357142857142857 0.1160714285714286 0.1517857142857143 0.1607142857142857 0.4604878048780488 0.04780487804878049 0.09073170731707317 0.06731707317073171 0.3336585365853659 0.3181818181818182 0.04545454545454546 0.04545454545454546 0.06818181818181818 0.5227272727272727 0.4013157894736842 0.04166666666666666 0.1030701754385965 0.05701754385964912 0.3969298245614035</probabilities>
		</cpt>
		<cpt id="DiffWalk" diagtype="observation" ranked="true">
			<state id="None" />
			<state id="Difficulty_walking_or_climbing_stairs" />
			<parents>GenHlth ﻿Diabetes_012</parents>
			<probabilities>0.9691096305269533 0.03089036947304664 0.9375 0.0625 0.8333333333333333 0.1666666666666667 0.9438999662047989 0.05610003379520108 0.9459459459459461 0.05405405405405406 0.9049429657794676 0.09505703422053231 0.8350848827809215 0.1649151172190784 0.75 0.25 0.7174959871589085 0.2825040128410915 0.5452462772050402 0.4547537227949599 0.5121951219512195 0.4878048780487805 0.4840182648401826 0.5159817351598173 0.260387811634349 0.739612188365651 0.08 0.92 0.2285714285714286 0.7714285714285715</probabilities>
		</cpt>
		<cpt id="Sex" diagtype="observation" ranked="true">
			<state id="Female" />
			<state id="Male" />
			<parents>Income ﻿Diabetes_012</parents>
			<probabilities>0.6775244299674268 0.3224755700325733 0.8181818181818182 0.1818181818181818 0.7589285714285714 0.2410714285714285 0.7146739130434783 0.2853260869565217 0.8181818181818182 0.1818181818181818 0.708029197080292 0.291970802919708 0.6805054151624549 0.3194945848375451 0.9583333333333333 0.04166666666666666 0.6884422110552764 0.3115577889447236 0.659270998415214 0.3407290015847861 0.7000000000000001 0.3 0.65 0.35 0.6458072590738423 0.3541927409261577 0.6190476190476191 0.3809523809523809 0.6188118811881188 0.3811881188118812 0.5808636748518204 0.4191363251481795 0.6923076923076923 0.3076923076923077 0.4913793103448276 0.5086206896551724 0.5553221288515406 0.4446778711484594 0.4333333333333333 0.5666666666666667 0.478448275862069 0.521551724137931 0.520655737704918 0.479344262295082 0.4324324324324325 0.5675675675675675 0.4045307443365696 0.5954692556634305</probabilities>
		</cpt>
		<cpt id="Education" diagtype="observation" ranked="true">
			<state id="kindergarten" />
			<state id="Elementary_school" />
			<state id="Middle_school" />
			<state id="High_school" />
			<state id="Undergraduate_studies" />
			<state id="Graduate_studies" />
			<parents>Income ﻿Diabetes_012</parents>
			<probabilities>0.000541125541125541 0.05248917748917748 0.1628787878787878 0.3901515151515151 0.2732683982683982 0.1206709956709956 0.09722222222222222 0.01388888888888889 0.1805555555555555 0.4305555555555556 0.2638888888888888 0.01388888888888889 0.008928571428571428 0.125 0.25 0.3928571428571428 0.1428571428571428 0.08035714285714285 0.005434782608695652 0.05434782608695652 0.1521739130434783 0.3722826086956522 0.2907608695652174 0.125 0.007246376811594202 0.05072463768115942 0.2246376811594203 0.4420289855072463 0.1376811594202899 0.1376811594202899 0.001207729468599034 0.09541062801932369 0.17512077294686 0.3562801932367151 0.2620772946859904 0.1099033816425121 0.0003003003003003003 0.03093093093093094 0.1300300300300301 0.4003003003003004 0.3066066066066067 0.1318318318318319 0.01388888888888889 0.09722222222222222 0.01388888888888889 0.4305555555555556 0.2638888888888888 0.1805555555555555 0.01507537688442211 0.06030150753768844 0.1557788944723618 0.3969849246231156 0.2763819095477387 0.09547738693467336 0.0002637130801687764 0.02874472573839663 0.06513713080168777 0.3895042194092828 0.3183016877637131 0.1980485232067511 0.007936507936507936 0.05555555555555556 0.007936507936507936 0.2936507936507937 0.4365079365079365 0.1984126984126984 0.0008291873963515754 0.04063018242122719 0.1053067993366501 0.3490878938640133 0.3391376451077944 0.1650082918739635 0.0002083333333333333 0.01770833333333333 0.03770833333333334 0.3527083333333333 0.3302083333333334 0.2614583333333333 0.007575757575757576 0.007575757575757576 0.09848484848484848 0.4166666666666666 0.3257575757575758 0.143939393939394 0.0008210180623973728 0.0303776683087028 0.06486042692939245 0.2619047619047619 0.3949096880131364 0.2471264367816092 0.000846740050804403 0.005927180355630821 0.0270956816257409 0.2574089754445385 0.3547840812870449 0.3539373412362405 0.006172839506172839 0.006172839506172839 0.006172839506172839 0.154320987654321 0.6358024691358025 0.191358024691358 0.000715307582260372 0.009298998569384835 0.030758226037196 0.271101573676681 0.3612303290414879 0.32689556509299 0.0007002801120448179 0.004901960784313725 0.01890756302521008 0.203781512605042 0.3207282913165266 0.4509803921568628 0.005376344086021505 0.005376344086021505 0.005376344086021505 0.2956989247311828 0.2956989247311828 0.3924731182795699 0.000715307582260372 0.000715307582260372 0.03505007153075822 0.1895565092989986 0.3698140200286123 0.4041487839771102 5.462689828471539e-05 0.002676718015951054 0.006937616082158856 0.1134600677373539 0.251447612804545 0.6254233584617066 0.004385964912280702 0.004385964912280702 0.004385964912280702 0.2412280701754386 0.2149122807017544 0.5307017543859649 0.0005376344086021505 0.003763440860215054 0.01989247311827957 0.1134408602150538 0.239247311827957 0.6231182795698924</probabilities>
		</cpt>
	</nodes>
	<extensions>
		<genie version="1.0" app="GeNIe 4.1.4109.0 ACADEMIC" name="TAN">
			<node id="﻿Diabetes_012">
				<name>﻿Diabetes_012</name>
				<interior color="ffff80" />
				<outline color="000080" />
				<font color="000000" name="Arial" size="8" />
				<position>697 415 769 463</position>
				<barchart active="true" width="128" height="72" />
			</node>
			<node id="HighBP">
				<name>HighBP</name>
				<interior color="e5f6f7" />
				<outline color="000080" />
				<font color="000000" name="Arial" size="8" />
				<position>1403 433 1475 481</position>
				<barchart active="true" width="128" height="64" />
			</node>
			<node id="HighChol">
				<name>HighChol</name>
				<interior color="e5f6f7" />
				<outline color="000080" />
				<font color="000000" name="Arial" size="8" />
				<position>1366 543 1438 591</position>
				<barchart active="true" width="128" height="64" />
			</node>
			<node id="CholCheck">
				<name>CholCheck</name>
				<interior color="e5f6f7" />
				<outline color="000080" />
				<font color="000000" name="Arial" size="8" />
				<position>1290 659 1362 707</position>
				<barchart active="true" width="128" height="64" />
			</node>
			<node id="BMI">
				<name>BMI</name>
				<interior color="e5f6f7" />
				<outline color="000080" />
				<font color="000000" name="Arial" size="8" />
				<position>1142 791 1214 839</position>
				<barchart active="true" width="128" height="162" />
			</node>
			<node id="Smoker">
				<name>Smoker</name>
				<interior color="e5f6f7" />
				<outline color="000080" />
				<font color="000000" name="Arial" size="8" />
				<position>978 835 1050 883</position>
				<barchart active="true" width="128" height="64" />
			</node>
			<node id="Stroke">
				<name>Stroke</name>
				<interior color="e5f6f7" />
				<outline color="000080" />
				<font color="000000" name="Arial" size="8" />
				<position>806 867 878 915</position>
				<barchart active="true" width="128" height="64" />
			</node>
			<node id="HeartDiseaseorAttack">
				<name>HeartDiseaseorAttack</name>
				<interior color="e5f6f7" />
				<outline color="000080" />
				<font color="000000" name="Arial" size="8" />
				<position>610 874 682 922</position>
				<barchart active="true" width="128" height="64" />
			</node>
			<node id="PhysActivity">
				<name>PhysActivity</name>
				<interior color="e5f6f7" />
				<outline color="000080" />
				<font color="000000" name="Arial" size="8" />
				<position>455 859 527 907</position>
				<barchart active="true" width="128" height="64" />
			</node>
			<node id="Fruits">
				<name>Fruits</name>
				<interior color="e5f6f7" />
				<outline color="000080" />
				<font color="000000" name="Arial" size="8" />
				<position>304 791 376 839</position>
				<barchart active="true" width="128" height="64" />
			</node>
			<node id="Veggies">
				<name>Veggies</name>
				<interior color="e5f6f7" />
				<outline color="000080" />
				<font color="000000" name="Arial" size="8" />
				<position>205 695 277 743</position>
				<barchart active="true" width="128" height="64" />
			</node>
			<node id="HvyAlcoholConsump">
				<name>HvyAlcoholConsump</name>
				<interior color="e5f6f7" />
				<outline color="000080" />
				<font color="000000" name="Arial" size="8" />
				<position>113 609 185 657</position>
				<barchart active="true" width="128" height="64" />
			</node>
			<node id="AnyHealthcare">
				<name>AnyHealthcare</name>
				<interior color="e5f6f7" />
				<outline color="000080" />
				<font color="000000" name="Arial" size="8" />
				<position>85 490 157 538</position>
				<barchart active="true" width="128" height="64" />
			</node>
			<node id="NoDocbcCost">
				<name>NoDocbcCost</name>
				<interior color="e5f6f7" />
				<outline color="000080" />
				<font color="000000" name="Arial" size="8" />
				<position>49 372 121 420</position>
				<barchart active="true" width="128" height="64" />
			</node>
			<node id="GenHlth">
				<name>GenHlth</name>
				<interior color="e5f6f7" />
				<outline color="000080" />
				<font color="000000" name="Arial" size="8" />
				<position>86 234 158 282</position>
				<barchart active="true" width="128" height="108" />
			</node>
			<node id="MentHlth">
				<name>MentHlth</name>
				<interior color="e5f6f7" />
				<outline color="000080" />
				<font color="000000" name="Arial" size="8" />
				<position>139 80 211 128</position>
				<barchart active="true" width="128" height="108" />
			</node>
			<node id="PhysHlth">
				<name>PhysHlth</name>
				<interior color="e5f6f7" />
				<outline color="000080" />
				<font color="000000" name="Arial" size="8" />
				<position>402 76 474 124</position>
				<barchart active="true" width="128" height="108" />
			</node>
			<node id="DiffWalk">
				<name>DiffWalk</name>
				<interior color="e5f6f7" />
				<outline color="000080" />
				<font color="000000" name="Arial" size="8" />
				<position>591 77 663 125</position>
				<barchart active="true" width="128" height="64" />
			</node>
			<node id="Sex">
				<name>Sex</name>
				<interior color="e5f6f7" />
				<outline color="000080" />
				<font color="000000" name="Arial" size="8" />
				<position>740 36 812 84</position>
				<barchart active="true" width="128" height="64" />
			</node>
			<node id="Age">
				<name>Age</name>
				<interior color="e5f6f7" />
				<outline color="000080" />
				<font color="000000" name="Arial" size="8" />
				<position>999 113 1071 161</position>
				<barchart active="true" width="128" height="252" />
			</node>
			<node id="Education">
				<name>Education</name>
				<interior color="e5f6f7" />
				<outline color="000080" />
				<font color="000000" name="Arial" size="8" />
				<position>1207 82 1279 130</position>
				<barchart active="true" width="128" height="126" />
			</node>
			<node id="Income">
				<name>Income</name>
				<interior color="e5f6f7" />
				<outline color="000080" />
				<font color="000000" name="Arial" size="8" />
				<position>1343 291 1415 339</position>
				<barchart active="true" width="128" height="162" />
			</node>
			<textbox>
				<caption>Input file: Diabietes_dens.csv\nData rows: 10119\nElapsed time: 0.093s\n\nLearning algorithm: Tree Augmented Naive Bayes\nAlgorithm parameters:\nClass variable: ﻿Diabetes_012\nSeed: 0\nMax search time: 0\n\nEM Log Likelihood: -168387</caption>
				<font color="000000" name="Arial" size="8" />
				<position>25 802 262 956</position>
			</textbox>
		</genie>
	</extensions>
</smile>
